3.577873576432466507e-03,5.607845261693000793e-03,1.083051227033138275e-02,1.053802017122507095e-02,-1.377669349312782288e-02,-9.378249756991863251e-03,5.150352604687213898e-03,5.137859378010034561e-03,5.150476470589637756e-03,3.852731361985206604e-02,5.708904936909675598e-03,1.135565619915723801e-02,9.540017694234848022e-03,6.513912696391344070e-03,-3.152692224830389023e-03,7.589692249894142151e-03,-7.728252094238996506e-03,-2.368186134845018387e-03,-4.853635095059871674e-03,8.187413914129137993e-04,2.314658649265766144e-02,-1.867265254259109497e-02,6.862601265311241150e-03,-1.612715795636177063e-02,-4.719318822026252747e-03,1.088950596749782562e-02,6.428001797758042812e-04,-1.077744737267494202e-02,-7.153037004172801971e-03,6.795977242290973663e-03,-7.303666323423385620e-03,2.164585748687386513e-03,4.557184001896530390e-04,-6.516003515571355820e-03,2.143944054841995239e-02,6.339190062135457993e-03,-2.025142684578895569e-02,1.864543068222701550e-03,-6.617864128202199936e-03,8.524333126842975616e-03,-7.925207726657390594e-03,-1.147364382632076740e-03,5.049872677773237228e-03,8.657551370561122894e-03,-1.200296357274055481e-02,-3.345012199133634567e-03,-4.749453160911798477e-03,-6.533292587846517563e-03,1.765454187989234924e-02,4.049817100167274475e-03,-1.260883919894695282e-02,9.178618900477886200e-03,2.122156135737895966e-02,1.032465230673551559e-02,-1.519369892776012421e-02,-4.842340480536222458e-03,1.266911160200834274e-02,-7.076694164425134659e-03,4.438194446265697479e-03,7.746340241283178329e-03,-9.269304573535919189e-03,-5.952535429969429970e-04,-3.241267427802085876e-02,-1.024387590587139130e-02
-2.525681396946310997e-03,-1.247783191502094269e-02,1.632411405444145203e-02,-1.430141273885965347e-02,-4.400444682687520981e-03,1.307405764237046242e-03,1.441273279488086700e-02,-1.435862109065055847e-02,1.163163781166076660e-02,1.023306103888899088e-04,-9.815086610615253448e-03,4.621034953743219376e-03,1.990596996620297432e-03,-6.002168636769056320e-03,6.980207981541752815e-04,-3.853135975077748299e-03,1.135173370130360126e-03,6.621306296437978745e-03,1.586016826331615448e-02,-1.237815432250499725e-02,2.133033238351345062e-02,-1.952087692916393280e-02,-1.517850905656814575e-03,5.883172154426574707e-03,2.809918718412518501e-03,-6.226995028555393219e-03,-2.081222599372267723e-03,-4.930009134113788605e-03,-5.893647670745849609e-03,8.496020920574665070e-03,3.570154774934053421e-03,-6.929095834493637085e-03,8.995998650789260864e-03,3.072995226830244064e-03,8.128620684146881104e-03,6.296288222074508667e-03,-8.289949968457221985e-03,-5.601810291409492493e-03,7.472935598343610764e-03,6.103702820837497711e-03,-2.090159396175295115e-04,1.173273776657879353e-03,1.277664862573146820e-02,-5.915713962167501450e-03,5.470973905175924301e-03,-2.021926455199718475e-03,-2.176811918616294861e-03,1.098776794970035553e-02,8.254162967205047607e-03,8.135096170008182526e-03,1.305478811264038086e-02,2.100384153891354799e-04,6.819529458880424500e-03,-3.102667629718780518e-03,3.241663565859198570e-03,-1.301430631428956985e-03,9.699595975689589977e-04,5.951570346951484680e-03,-8.182206191122531891e-03,2.092387154698371887e-02,-1.006017345935106277e-02,-1.214188523590564728e-02,1.158110797405242920e-02,7.916626520454883575e-03
