4.967141449451446533e-01,-1.382642984390258789e-01,6.476885676383972168e-01,1.523029804229736328e+00,-2.341533750295639038e-01,-2.341369539499282837e-01,1.579212784767150879e+00,7.674347162246704102e-01,-4.694743752479553223e-01,5.425600409507751465e-01,-4.634176790714263916e-01,-4.657297432422637939e-01,2.419622689485549927e-01,-1.913280248641967773e+00,-1.724917888641357422e+00,-5.622875094413757324e-01,-1.012831091880798340e+00,3.142473399639129639e-01,-9.080240726470947266e-01,-1.412303686141967773e+00,1.465648770332336426e+00,-2.257762998342514038e-01,6.752820312976837158e-02,-1.424748182296752930e+00,-5.443827509880065918e-01,1.109225898981094360e-01,-1.150993585586547852e+00,3.756980299949645996e-01,-6.006386876106262207e-01,-2.916937470436096191e-01,-6.017066240310668945e-01,1.852278232574462891e+00,-1.349722500890493393e-02,-1.057710886001586914e+00,8.225449323654174805e-01,-1.220843672752380371e+00,2.088636010885238647e-01,-1.959670066833496094e+00,-1.328186035156250000e+00,1.968612372875213623e-01,7.384665608406066895e-01,1.713682860136032104e-01,-1.156482845544815063e-01,-3.011036813259124756e-01,-1.478521943092346191e+00,-7.198442220687866211e-01,-4.606387615203857422e-01,1.057122230529785156e+00,3.436183035373687744e-01,-1.763040184974670410e+00,3.240839838981628418e-01,-3.850822746753692627e-01,-6.769220232963562012e-01,6.116762757301330566e-01,1.030999541282653809e+00,9.312801361083984375e-01,-8.392175436019897461e-01,-3.092123866081237793e-01,3.312634229660034180e-01,9.755451083183288574e-01,-4.791742265224456787e-01,-1.856589764356613159e-01,-1.106334924697875977e+00,-1.196206569671630859e+00,8.125258088111877441e-01,1.356240034103393555e+00,-7.201012223958969116e-02,1.003532886505126953e+00,3.616360127925872803e-01,-6.451197266578674316e-01,3.613955974578857422e-01,1.538036584854125977e+00,-3.582603856921195984e-02,1.564643621444702148e+00,-2.619745016098022461e+00,8.219025135040283203e-01,8.704707026481628418e-02,-2.990073561668395996e-01,9.176077693700790405e-02,-1.987568855285644531e+00,-2.196718901395797729e-01,3.571125566959381104e-01,1.477894067764282227e+00,-5.182701945304870605e-01,-8.084936141967773438e-01,-5.017570257186889648e-01,9.154021143913269043e-01,3.287511169910430908e-01,-5.297601819038391113e-01,5.132674574851989746e-01,9.707754850387573242e-02,9.686449766159057617e-01,-7.020530700683593750e-01,-3.276621401309967041e-01,-3.921081423759460449e-01,-1.463514924049377441e+00,2.961202859878540039e-01,2.610552608966827393e-01,5.113456863909959793e-03,-2.345871329307556152e-01,-1.415370702743530273e+00,-4.206453263759613037e-01,-3.427145183086395264e-01,-8.022772669792175293e-01,-1.612857133150100708e-01,4.040508568286895752e-01,1.886185884475708008e+00,1.745778173208236694e-01,2.575503885746002197e-01,-7.444591820240020752e-02,-1.918771266937255859e+00,-2.651387453079223633e-02,6.023021042346954346e-02,2.463242053985595703e+00,-1.923609673976898193e-01,3.015473484992980957e-01,-3.471177071332931519e-02,-1.168678045272827148e+00,1.142822861671447754e+00,7.519330382347106934e-01,7.910319566726684570e-01,-9.093874692916870117e-01,1.402794361114501953e+00,-1.401851058006286621e+00,5.868570804595947266e-01,2.190455675125122070e+00,-9.905363321304321289e-01,-5.662977099418640137e-01,9.965136647224426270e-02,-5.034756660461425781e-01,-1.550663471221923828e+00,6.856297701597213745e-02,-1.062303662300109863e+00,4.735924303531646729e-01,-9.194242358207702637e-01,1.549934387207031250e+00,-7.832533121109008789e-01,-3.220615088939666748e-01,8.135172128677368164e-01,-1.230864286422729492e+00,2.274599373340606689e-01,1.307142734527587891e+00,-1.607483267784118652e+00,1.846338659524917603e-01,2.598828077316284180e-01,7.818228602409362793e-01,-1.236950755119323730e+00,-1.320456624031066895e+00,5.219415426254272461e-01,2.969846725463867188e-01,2.504928410053253174e-01,3.464482128620147705e-01,-6.800247430801391602e-01,2.322537004947662354e-01,2.930724620819091797e-01,-7.143514156341552734e-01,1.865774512290954590e+00,4.738329350948333740e-01,-1.191303491592407227e+00,6.565536260604858398e-01,-9.746816754341125488e-01,7.870845794677734375e-01,1.158595561981201172e+00,-8.206823468208312988e-01,9.633761048316955566e-01,4.127809405326843262e-01,8.220601677894592285e-01,1.896793007850646973e+00,-2.453881204128265381e-01,-7.537361383438110352e-01,-8.895144462585449219e-01,-8.158102631568908691e-01,-7.710170745849609375e-02,3.411519825458526611e-01,2.766908109188079834e-01,8.271832466125488281e-01,1.300189178436994553e-02,1.453534126281738281e+00,-2.646568417549133301e-01,2.720169067382812500e+00,6.256673336029052734e-01,-8.571575284004211426e-01,-1.070892453193664551e+00,4.824724197387695312e-01,-2.234627902507781982e-01,7.140005230903625488e-01,4.732376337051391602e-01,-7.282891124486923218e-02,-8.467937111854553223e-01,-1.514847278594970703e+00,-4.465149641036987305e-01,8.563988208770751953e-01,2.140937447547912598e-01,-1.245738744735717773e+00,1.731809228658676147e-01,3.853173851966857910e-01,-8.838574290275573730e-01,1.537251025438308716e-01,5.820871889591217041e-02,-1.142970323562622070e+00,3.577873706817626953e-01,5.607845187187194824e-01,1.083051204681396484e+00,1.053802013397216797e+00,-1.377669334411621094e+00,-9.378250241279602051e-01,5.150352716445922852e-01,5.137859582901000977e-01,5.150476694107055664e-01,3.852731466293334961e+00,5.708904862403869629e-01,1.135565638542175293e+00,9.540017843246459961e-01,6.513912677764892578e-01,-3.152692317962646484e-01,7.589692473411560059e-01,-7.728252410888671875e-01,-2.368186116218566895e-01,-4.853635430335998535e-01,8.187413960695266724e-02,2.314658641815185547e+00,-1.867265224456787109e+00,6.862601637840270996e-01,-1.612715840339660645e+00,-4.719318747520446777e-01,1.088950634002685547e+00,6.428001821041107178e-02,-1.077744722366333008e+00,-7.153037190437316895e-01,6.795977354049682617e-01,-7.303666472434997559e-01,2.164585888385772705e-01,4.557184129953384399e-02,-6.516003608703613281e-01,2.143944025039672852e+00,6.339190006256103516e-01,-2.025142669677734375e+00,1.864543110132217407e-01,-6.617864370346069336e-01,8.524333238601684570e-01,-7.925207614898681641e-01,-1.147364377975463867e-01,5.049872994422912598e-01,8.657552003860473633e-01,-1.200296401977539062e+00,-3.345012366771697998e-01,-4.749453067779541016e-01,-6.533292531967163086e-01,1.765454292297363281e+00,4.049817025661468506e-01,-1.260883927345275879e+00,9.178619384765625000e-01,2.122156143188476562e+00,1.032465219497680664e+00,-1.519369959831237793e+00,-4.842340648174285889e-01,1.266911149024963379e+00,-7.076694369316101074e-01,4.438194334506988525e-01,7.746340632438659668e-01,-9.269304871559143066e-01,-5.952535569667816162e-02,-3.241267442703247070e+00,-1.024387598037719727e+00,-2.525681555271148682e-01,-1.247783184051513672e+00,1.632411360740661621e+00,-1.430141329765319824e+00,-4.400444924831390381e-01,1.307405829429626465e-01,1.441273331642150879e+00,-1.435862183570861816e+00,1.163163781166076660e+00,1.023306138813495636e-02,-9.815086722373962402e-01,4.621034860610961914e-01,1.990596950054168701e-01,-6.002168655395507812e-01,6.980208307504653931e-02,-3.853136003017425537e-01,1.135173439979553223e-01,6.621306538581848145e-01,1.586016774177551270e+00,-1.237815499305725098e+00,2.133033275604248047e+00,-1.952087759971618652e+00,-1.517850905656814575e-01,5.883172154426574707e-01,2.809918820858001709e-01,-6.226994991302490234e-01,-2.081222534179687500e-01,-4.930009245872497559e-01,-5.893647670745849609e-01,8.496021032333374023e-01,3.570154905319213867e-01,-6.929095983505249023e-01,8.995998501777648926e-01,3.072995245456695557e-01,8.128620982170104980e-01,6.296288371086120605e-01,-8.289949893951416016e-01,-5.601810216903686523e-01,7.472935914993286133e-01,6.103702783584594727e-01,-2.090159431099891663e-02,1.173273846507072449e-01,1.277664899826049805e+00,-5.915713906288146973e-01,5.470973849296569824e-01,-2.021926492452621460e-01,-2.176811993122100830e-01,1.098776817321777344e+00,8.254163265228271484e-01,8.135096430778503418e-01,1.305478811264038086e+00,2.100384235382080078e-02,6.819529533386230469e-01,-3.102667629718780518e-01,3.241663575172424316e-01,-1.301430612802505493e-01,9.699596464633941650e-02,5.951570272445678711e-01,-8.182206749916076660e-01,2.092387199401855469e+00,-1.006017327308654785e+00,-1.214188575744628906e+00,1.158110857009887695e+00,7.916626930236816406e-01,6.241198182106018066e-01,6.283454895019531250e-01,-1.224677264690399170e-02,-8.972543478012084961e-01,7.580456137657165527e-02,-6.771616935729980469e-01,9.751197099685668945e-01,-1.470573842525482178e-01,-8.254972100257873535e-01,-3.213858306407928467e-01,4.129314422607421875e-01,-5.637245774269104004e-01,-8.222203850746154785e-01,2.436872124671936035e-01,2.449665665626525879e-01,-5.069431662559509277e-01,-4.710383117198944092e-01,2.320499420166015625e-01,-1.448084354400634766e+00,-1.407463788986206055e+00,-7.184442281723022461e-01,-2.134471535682678223e-01,3.109075725078582764e-01,1.475356221199035645e+00,8.576596379280090332e-01,-1.599385291337966919e-01,-1.901620812714099884e-02,-1.002529382705688477e+00,-1.851313561201095581e-02,-2.886586487293243408e-01,3.227185606956481934e-01,-8.272309303283691406e-01,5.193465352058410645e-01,1.532738924026489258e+00,-1.087601482868194580e-01,4.017117321491241455e-01,6.901440024375915527e-01,-4.012204706668853760e-01,2.240924835205078125e-01,1.259240042418241501e-02,9.767609834671020508e-02,-7.730097770690917969e-01,2.451017498970031738e-02,4.979982972145080566e-01,1.451143622398376465e+00,9.592708349227905273e-01,2.153182506561279297e+00,-7.673475742340087891e-01,8.723206520080566406e-01,1.833420097827911377e-01,2.189802885055541992e+00,-8.082982897758483887e-01,-8.397218585014343262e-01,-5.993926525115966797e-01,-2.123895645141601562e+00,-5.257550477981567383e-01,-7.591326832771301270e-01,1.503937840461730957e-01,3.417559862136840820e-01,1.876170873641967773e+00,9.504238367080688477e-01,-5.769036412239074707e-01,-8.984146714210510254e-01,4.919191598892211914e-01,-1.320233225822448730e+00,1.831458806991577148e+00,1.179440140724182129e+00,-4.691756665706634521e-01,-1.713134527206420898e+00,1.353872418403625488e+00,-1.145398467779159546e-01,1.237816333770751953e+00,-1.594427704811096191e+00,-5.993750095367431641e-01,5.243699532002210617e-03,4.698059335350990295e-02,-4.500654637813568115e-01,6.228499412536621094e-01,-1.067620396614074707e+00,-1.423794776201248169e-01,1.202956289052963257e-01,5.144388079643249512e-01,7.116149067878723145e-01,-1.124642133712768555e+00,-1.534114122390747070e+00,1.277676820755004883e+00,3.323140144348144531e-01,-7.484865188598632812e-01,1.551151990890502930e+00,1.156746372580528259e-01,1.179297208786010742e+00,6.751848012208938599e-02,2.060747861862182617e+00,1.755340814590454102e+00,-2.489641457796096802e-01,9.715709686279296875e-01,6.453759670257568359e-01,1.368631601333618164e+00,-9.649234414100646973e-01,6.860514879226684570e-01,1.058424472808837891e+00,-1.758739471435546875e+00,-1.183258533477783203e+00,-2.039232254028320312e+00,-2.694068253040313721e-01,7.175422310829162598e-01,1.502357006072998047e+00,7.409477978944778442e-02,1.628615498542785645e+00,-1.380101442337036133e+00,-1.703382492065429688e+00,-5.554769933223724365e-02,3.840654492378234863e-01,-3.269474953413009644e-02,-2.067442178726196289e+00,-8.912003785371780396e-02,-1.304469466209411621e+00,6.696725487709045410e-01,3.665982484817504883e-01,-9.398797750473022461e-01,-5.138669013977050781e-01,-1.059213519096374512e+00,-6.267909705638885498e-02,9.551423192024230957e-01,-9.857260584831237793e-01,5.040464997291564941e-01,-5.302576422691345215e-01,-7.928728461265563965e-01,-1.070303618907928467e-01,-1.035242319107055664e+00,-5.536493062973022461e-01,-1.197877883911132812e+00,1.964725136756896973e+00,3.526355326175689697e-02,-6.997255086898803711e-01,2.139799147844314575e-01,-1.123280525207519531e-01,-2.209696024656295776e-01,6.141666769981384277e-01,7.575076818466186523e-01,-5.305011272430419922e-01,-5.758182406425476074e-01,-2.750516831874847412e-01,-2.301921129226684570e+00,-1.515191078186035156e+00,1.366874217987060547e+00,1.644967675209045410e+00,-2.490360438823699951e-01,5.765569806098937988e-01,3.112501502037048340e-01,3.078880786895751953e+00,1.119574904441833496e+00,-1.279175877571105957e-01,-9.555404186248779297e-01,-1.606446266174316406e+00,2.034636288881301880e-01,-7.563507556915283203e-01,-1.422253727912902832e+00,-6.465728878974914551e-01,-1.081547975540161133e+00,1.687141656875610352e+00,8.816397786140441895e-01,-7.972640916705131531e-03,1.479944109916687012e+00,7.736830413341522217e-02,-8.612841963768005371e-01,1.523124098777770996e+00,5.389100313186645508e-01,-1.037246108055114746e+00,-1.903386712074279785e-01,-8.756182789802551270e-01,-1.382799744606018066e+00,9.261775612831115723e-01,1.909416675567626953e+00,-1.398567557334899902e+00,5.629692077636718750e-01,-6.506425738334655762e-01,-4.871253967285156250e-01,-5.923939347267150879e-01,-8.639907836914062500e-01,4.852162674069404602e-02,-8.309501409530639648e-01,2.704568207263946533e-01,-5.023811012506484985e-02
-2.389480471611022949e-01,-9.075636863708496094e-01,-5.767713189125061035e-01,7.553912401199340820e-01,5.009171962738037109e-01,-9.775552153587341309e-01,9.933230280876159668e-02,7.513871192932128906e-01,-1.669405221939086914e+00,5.433601737022399902e-01,-6.626237630844116211e-01,5.705986618995666504e-01,-7.632591724395751953e-01,-1.804882049560546875e+00,-1.627542495727539062e+00,4.808494821190834045e-02,2.597225010395050049e-01,-9.043166041374206543e-01,6.385924816131591797e-01,-1.661520004272460938e+00,-6.607979536056518555e-02,-1.211016178131103516e+00,-6.518360972404479980e-01,4.739867150783538818e-02,-8.604133725166320801e-01,-3.845555484294891357e-01,1.006292819976806641e+00,-5.768918991088867188e-01,8.356921076774597168e-01,-1.129706859588623047e+00,5.298041701316833496e-01,1.441568613052368164e+00,-2.471644401550292969e+00,-7.968952655792236328e-01,5.770721435546875000e-01,-2.030453830957412720e-01,3.711458742618560791e-01,-6.039851903915405273e-01,8.658979088068008423e-02,-1.556772291660308838e-01,1.167782068252563477e+00,2.544208467006683350e-01,3.376026749610900879e-01,-4.118769764900207520e-01,-4.876062273979187012e-01,-4.325581789016723633e-01,3.944521546363830566e-01,-4.209844768047332764e-01,2.897748649120330811e-01,2.075400829315185547e+00,8.711246848106384277e-01,-3.260235190391540527e-01,1.201213955879211426e+00,-4.080753624439239502e-01,-2.038124561309814453e+00,-1.008086323738098145e+00,-1.870791912078857422e+00,-3.515134751796722412e-01,1.841837912797927856e-02,1.676437258720397949e+00,3.269273638725280762e-01,-2.191005349159240723e-01,8.294056057929992676e-01,-2.211135387420654297e+00,2.356145530939102173e-01,7.708652019500732422e-01,-1.478586196899414062e+00,1.143754005432128906e+00,3.384964168071746826e-01,-4.152879118919372559e-01,6.327818632125854492e-01,2.270692825317382812e+00,1.818662583827972412e-01,2.482205927371978760e-01,-4.593608975410461426e-01,-8.498443961143493652e-01,8.303357958793640137e-01,-8.560838103294372559e-01,7.156623899936676025e-02,-4.776574373245239258e-01,4.789798259735107422e-01,3.336620926856994629e-01,1.037539958953857422e+00,-5.100163817405700684e-01,-2.698749303817749023e-01,-9.787636995315551758e-01,-4.442932605743408203e-01,3.773005008697509766e-01,7.569886445999145508e-01,-9.221653342247009277e-01,8.696058988571166992e-01,1.355637907981872559e+00,4.134348928928375244e-01,1.876795768737792969e+00,-7.737892270088195801e-01,-1.244654655456542969e+00,-1.778720259666442871e+00,1.496044278144836426e+00,6.543656587600708008e-01,-5.558466911315917969e-02,2.799686193466186523e-01,-1.125488996505737305e+00,2.445751905441284180e+00,1.292211860418319702e-01,1.093947961926460266e-01,7.257665991783142090e-01,4.810092449188232422e-01,2.238840311765670776e-01,-7.904744744300842285e-01,4.714683592319488525e-01,1.882024526596069336e+00,1.345420002937316895e+00,1.593186616897583008e+00,-5.112156867980957031e-01,-9.896048307418823242e-01,-1.257869154214859009e-01,5.572491139173507690e-02,1.094191551208496094e+00,-1.692464590072631836e+00,1.529550313949584961e+00,-1.580079048871994019e-01,-4.268810749053955078e-01,-1.012104392051696777e+00,-1.654856681823730469e+00,8.231706023216247559e-01,7.331796735525131226e-02,-1.289960861206054688e+00,-1.295078754425048828e+00,-3.357847034931182861e-01,1.669021487236022949e+00,-2.595913410186767578e-01,-1.503142952919006348e+00,-2.457430660724639893e-01,-2.727235555648803711e-01,-2.696886539459228516e+00,-5.429486557841300964e-02,-2.309345304965972900e-01,6.962063908576965332e-01,1.848956108093261719e+00,1.126564979553222656e+00,-2.688886821269989014e-01,-1.106525897979736328e+00,2.573359727859497070e+00,5.921843275427818298e-02,1.392929162830114365e-02,-2.412508800625801086e-02,1.980847567319869995e-01,-1.443604081869125366e-01,-5.736619830131530762e-01,-5.468589663505554199e-01,-3.275327011942863464e-02,-5.434247851371765137e-01,-7.128458023071289062e-01,1.064302250742912292e-01,-2.549772262573242188e-01,1.503993034362792969e+00,-2.650969743728637695e+00,1.091506838798522949e+00,1.246085166931152344e+00,-2.073390245437622070e+00,-3.426876068115234375e-01,-3.714408576488494873e-01,-1.407511711120605469e+00,-7.778167128562927246e-01,-1.110575795173645020e+00,1.752270460128784180e+00,9.356784224510192871e-01,1.271555066108703613e+00,7.216720581054687500e-01,-1.129051804542541504e+00,-5.245202779769897461e-01,4.893745481967926025e-01,-1.222127795219421387e+00,7.129984498023986816e-01,-2.403253912925720215e-01,-3.748207986354827881e-01,7.109599709510803223e-01,4.442633092403411865e-01,-3.609661757946014404e-01,1.159329771995544434e+00,-1.081063270568847656e+00,6.159356236457824707e-01,5.931012630462646484e-01,-3.095464408397674561e-01,3.261330127716064453e-01,-1.251113533973693848e+00,9.240270256996154785e-01,-1.849021315574645996e-01,-5.227230191230773926e-01,1.049009203910827637e+00,-7.043436765670776367e-01,-1.408461332321166992e+00,-1.556629180908203125e+00,6.060099601745605469e-01,-1.280429363250732422e+00,1.754794239997863770e+00,-2.081929445266723633e+00,1.696456313133239746e+00,2.110174745321273804e-01,-9.671311080455780029e-02,-5.449190735816955566e-01,3.991361260414123535e-01,-3.763470426201820374e-02,1.103301882743835449e+00,1.142276450991630554e-01,1.503017544746398926e-01,-3.636122047901153564e-01,-5.694562196731567383e-02,3.078017830848693848e-01,-1.710168361663818359e+00,-1.348185420036315918e+00,7.432640790939331055e-01,1.708654314279556274e-01,-1.839833408594131470e-01,1.843393221497535706e-02,3.475817143917083740e-01,-5.397596955299377441e-01,-7.783046960830688477e-01,1.958452612161636353e-01,-9.783727526664733887e-01,4.082527458667755127e-01,-1.702583551406860352e+00,1.029155611991882324e+00,4.725974798202514648e-01,2.560297250747680664e-01,9.826909899711608887e-01,1.665474414825439453e+00,1.014370083808898926e+00,-1.840874195098876953e+00,-1.279577016830444336e+00,-6.248185634613037109e-01,2.609105035662651062e-02,5.176590085029602051e-01,-7.257438302040100098e-01,1.867667585611343384e-01,-7.553829550743103027e-01,-6.115177869796752930e-01,-1.406661152839660645e+00,-9.232332706451416016e-01,-1.351684570312500000e+00,-9.758732318878173828e-01,1.053641796112060547e+00,-9.493988752365112305e-01,2.632382154464721680e+00,4.933179020881652832e-01,1.848361194133758545e-01,-8.583577871322631836e-01,7.003098726272583008e-01,-5.756378173828125000e-01,1.220098137855529785e-01,2.560084581375122070e+00,-9.605989605188369751e-02,1.149273276329040527e+00,-7.031764388084411621e-01,-3.498848900198936462e-02,1.770800590515136719e+00,-6.269670724868774414e-01,1.812448501586914062e+00,7.077519297599792480e-01,-5.624668002128601074e-01,6.324077248573303223e-01,9.725544452667236328e-01,6.218099594116210938e-01,-1.570224761962890625e+00,-7.271371483802795410e-01,-2.475186288356781006e-01,-7.443343102931976318e-02,6.206721067428588867e-01,1.777009963989257812e-01,-1.335344314575195312e+00,3.801978528499603271e-01,6.105857491493225098e-01,5.597904324531555176e-01,1.080780744552612305e+00,8.339221477508544922e-01,4.591800868511199951e-01,-7.016570866107940674e-02,-1.660960912704467773e+00,4.296182096004486084e-01,2.076876908540725708e-01,2.715788483619689941e-01,-1.276748538017272949e+00,-1.081056594848632812e+00,1.053152799606323242e+00,-3.955515474081039429e-02,6.815006732940673828e-01,2.831837534904479980e-02,2.975613996386528015e-02,9.382838010787963867e-01,-5.160447359085083008e-01,9.612077474594116211e-02,-4.622752964496612549e-01,-4.344962239265441895e-01,-3.091721236705780029e-01,2.221337705850601196e-01,-4.787486195564270020e-01,1.255756139755249023e+00,-8.946073055267333984e-01,-1.868716478347778320e-01,-4.397310614585876465e-01,1.446977853775024414e+00,1.965547800064086914e-01,1.031844496726989746e+00,-1.485560417175292969e+00,2.670502662658691406e-01,8.896307945251464844e-01,8.228398859500885010e-02,1.065480351448059082e+00,-5.172884464263916016e-01,1.409347414970397949e+00,2.298898220062255859e+00,-3.628385663032531738e-01,-4.455025196075439453e-01,1.453384518623352051e+00,1.579572200775146484e+00,-5.228600502014160156e-01,-4.201868176460266113e-01,-2.817845940589904785e-01,-1.344450473785400391e+00,-9.186519384384155273e-01,-1.004140734672546387e+00,-7.677975893020629883e-01,-3.468488901853561401e-02,2.342147380113601685e-01,1.550500512123107910e+00,-9.983540177345275879e-01,9.843223690986633301e-01,-2.139888405799865723e-01,-4.946370795369148254e-02,6.748194694519042969e-01,-1.122722029685974121e+00,3.824097514152526855e-01,1.664522141218185425e-01,4.924512505531311035e-01,2.891686558723449707e-01,2.455300092697143555e+00,-6.377399563789367676e-01,-5.309969782829284668e-01,-6.231405138969421387e-01,-5.554771423339843750e-01,-6.373871564865112305e-01,1.189016580581665039e+00,1.420504212379455566e+00,-5.707463026046752930e-01,-8.323555588722229004e-01,4.714155495166778564e-01,-5.522230267524719238e-01,6.329318284988403320e-01,2.029230147600173950e-01,-1.515744090080261230e+00,1.547505259513854980e+00,1.795877695083618164e+00,-6.127886772155761719e-01,-3.877015709877014160e-01,2.858653962612152100e-01,3.344568014144897461e-01,6.585443019866943359e-01,2.010204553604125977e+00,-1.769472211599349976e-01,-7.982972264289855957e-01,-1.379319190979003906e+00,-7.309300303459167480e-01,-3.312697261571884155e-02,1.794557809829711914e+00,-5.176113247871398926e-01,2.237879484891891479e-01,-1.642289571464061737e-02,1.188393235206604004e+00,2.526932477951049805e+00,-5.308687686920166016e-01,-4.894394278526306152e-01,1.044160842895507812e+00,6.818915009498596191e-01,1.846707344055175781e+00,5.839281678199768066e-01,-3.592920899391174316e-01,5.906548500061035156e-01,1.108703613281250000e+00,8.204821944236755371e-01,5.072740316390991211e-01,1.066674709320068359e+00,1.169295549392700195e+00,1.382158994674682617e+00,6.487098932266235352e-01,-1.671180874109268188e-01,1.467136889696121216e-01,1.206508994102478027e+00,-8.169356584548950195e-01,3.686732947826385498e-01,-3.933387994766235352e-01,2.874482236802577972e-02,1.278451919555664062e+00,1.910990625619888306e-01,4.643654823303222656e-02,-1.359856128692626953e+00,7.462535500526428223e-01,6.454842090606689453e-01,2.163254737854003906e+00,-3.077782392501831055e-01,2.191503345966339111e-01,2.493836879730224609e-01,1.577453255653381348e+00,-9.529553353786468506e-02,2.790215313434600830e-01,6.078965067863464355e-01,1.866091191768646240e-01,-4.464336037635803223e-01,1.940899938344955444e-01,1.073631763458251953e+00,-1.026515245437622070e+00,1.329696774482727051e-01,-7.001208066940307617e-01,1.195046663284301758e+00,-1.523186922073364258e+00,-5.589218735694885254e-01,3.772118687629699707e-01,1.565523982048034668e+00,-6.575026363134384155e-02,-5.551995038986206055e-01,1.881157040596008301e+00,-1.448013901710510254e+00,-2.198806047439575195e+00,4.400144517421722412e-01,-5.020542144775390625e-01,-1.021232843399047852e+00,7.083564400672912598e-01,2.438007146120071411e-01,-5.640786290168762207e-01,-1.280304431915283203e+00,8.724573254585266113e-01,6.502012014389038086e-01,-9.917586296796798706e-02,1.846637010574340820e+00,-1.070084810256958008e+00,-1.525525212287902832e+00,-6.919080615043640137e-01,-4.558601602911949158e-02,2.433394491672515869e-01,-2.412360608577728271e-01,3.520554006099700928e-01,-1.251539468765258789e+00,1.443764567375183105e+00,-8.215118199586868286e-02,1.117295861244201660e+00,3.427253365516662598e-01,4.567532241344451904e-01,5.697672963142395020e-01,4.477085471153259277e-01,6.427227854728698730e-01,1.329152584075927734e+00,1.965211629867553711e-01,7.090037465095520020e-01,-8.973569422960281372e-02,1.440117239952087402e+00,-6.763923168182373047e-01,1.800940394401550293e+00,-4.015795141458511353e-02,-1.430775046348571777e+00,1.281044185161590576e-01,-6.810516715049743652e-01,8.406435251235961914e-01,-6.526239514350891113e-01,-4.461834430694580078e-01,-1.889540672302246094e+00,-4.523063302040100098e-01,-2.423879384994506836e+00,-1.583902835845947266e+00,7.604146599769592285e-01,7.858001589775085449e-01,4.254575669765472412e-01,-9.669761657714843750e-01,-4.771135747432708740e-02,-3.602539189159870148e-03,-1.158364653587341309e+00,1.503398299217224121e+00,8.773623108863830566e-01,-2.209641784429550171e-01,2.688583917915821075e-02,2.083828151226043701e-01,-2.041734933853149414e+00,-2.471773773431777954e-01,-6.819842457771301270e-01,-1.001620054244995117e+00,-2.811003029346466064e-01,1.797686576843261719e+00,6.408428549766540527e-01,-5.711789727210998535e-01,5.725827813148498535e-01,1.399355411529541016e+00,9.246336817741394043e-01,5.963037163019180298e-02,-6.469367742538452148e-01,6.982232928276062012e-01,3.934853971004486084e-01,8.951932191848754883e-01,6.351718306541442871e-01,1.049552679061889648e+00,-5.352352261543273926e-01,1.317394018173217773e+00,1.975996047258377075e-01,2.075260877609252930e+00,-6.891878247261047363e-01,1.735963821411132812e+00,1.979107856750488281e-01,-6.514180302619934082e-01,-4.838858246803283691e-01,-3.203473091125488281e-01,4.241659343242645264e-01,5.228354930877685547e-01,-5.737000107765197754e-01,-2.435459196567535400e-02,2.142270326614379883e+00
