6.241198163479566574e-03
6.283454596996307373e-03
-1.224677253048866987e-04
-8.972543291747570038e-03
7.580455858260393143e-04
-6.771616637706756592e-03
9.751196950674057007e-03
-1.470573828555643559e-03
-8.254972286522388458e-03
-3.213858231902122498e-03
4.129314329475164413e-03
-5.637245718389749527e-03
-8.222203701734542847e-03
2.436872106045484543e-03
2.449665684252977371e-03
-5.069431383162736893e-03
-4.710382781922817230e-03
2.320499392226338387e-03
-1.448084320873022079e-02
-1.407463755458593369e-02
-7.184442132711410522e-03
-2.134471433237195015e-03
3.109075594693422318e-03
1.475356146693229675e-02
8.576596155762672424e-03
-1.599385286681354046e-03
-1.901620707940310240e-04
-1.002529356628656387e-02
-1.851313572842627764e-04
-2.886586356908082962e-03
3.227185457944869995e-03
-8.272308856248855591e-03
5.193465389311313629e-03
1.532738935202360153e-02
-1.087601413019001484e-03
4.017117433249950409e-03
6.901439744979143143e-03
-4.012204706668853760e-03
2.240924863144755363e-03
1.259239943465217948e-04
9.767609881237149239e-04
-7.730097509920597076e-03
2.451017498970031738e-04
4.979982972145080566e-03
1.451143622398376465e-02
9.592708200216293335e-03
2.153182402253150940e-02
-7.673475425690412521e-03
8.723205886781215668e-03
1.833420014008879662e-03
2.189802750945091248e-02
-8.082983084022998810e-03
-8.397218771278858185e-03
-5.993926431983709335e-03
-2.123895660042762756e-02
-5.257550161331892014e-03
-7.591326721012592316e-03
1.503937761299312115e-03
3.417559899389743805e-03
1.876170746982097626e-02
9.504238143563270569e-03
-5.769036244601011276e-03
-8.984146639704704285e-03
4.919191356748342514e-03
