1.727543115615844727e+00,4.363236725330352783e-01,3.800347819924354553e-02
1.200313270092010498e-01,6.135179996490478516e-01,-1.022792577743530273e+00
-2.573765516281127930e-01,-1.668584108352661133e+00,3.992231190204620361e-01
6.471959352493286133e-01,-4.831864535808563232e-01,1.573986768722534180e+00
-1.225765705108642578e+00,-1.464374899864196777e+00,2.244518250226974487e-01
1.047098278999328613e+00,1.683927655220031738e+00,-4.588842689990997314e-01
1.078680872917175293e+00,-3.850847110152244568e-02,-1.726273000240325928e-01
8.836599588394165039e-01,6.523228883743286133e-01,-1.576392173767089844e+00
1.476540327072143555e+00,1.380091309547424316e+00,-6.255627274513244629e-01
3.958035409450531006e-01,4.940301775932312012e-01,2.606737613677978516e-01
-5.503051280975341797e-01,-6.716233491897583008e-01,-2.555407024919986725e-02
1.172729015350341797e+00,5.436001420021057129e-01,-3.706143200397491455e-01
7.716987133026123047e-01,-2.848542690277099609e+00,1.148765683174133301e+00
-1.739713788032531738e+00,-3.624409437179565430e-01,-1.119669914245605469e+00
-1.294681429862976074e+00,1.160826802253723145e+00,-4.677011966705322266e-01
3.465038836002349854e-01,-4.692057892680168152e-02,4.770408272743225098e-01
7.682189345359802246e-02,-1.282992243766784668e+00,9.962668418884277344e-01
-4.937565922737121582e-01,-1.556581854820251465e+00,-4.281151592731475830e-01
1.500759840011596680e+00,8.502217531204223633e-01,-3.486521244049072266e-01
-3.492577075958251953e-01,-3.216350376605987549e-01,2.076747894287109375e+00
3.819354474544525146e-01,4.300416409969329834e-01,1.030283451080322266e+00
2.387891560792922974e-01,-2.590421438217163086e-01,-1.963498443365097046e-01
-7.160125672817230225e-02,-3.722223639488220215e-02,7.276295423507690430e-01
5.194588750600814819e-02,7.326400876045227051e-01,-8.071658015251159668e-02
7.863519340753555298e-02,-1.998200654983520508e+00,9.163276553153991699e-01
3.464884757995605469e-01,9.980100989341735840e-01,-2.896255493164062500e+00
2.088374614715576172e+00,-1.395896226167678833e-01,1.108182787895202637e+00
-1.039905905723571777e+00,6.127738952636718750e-01,-1.053415536880493164e+00
-6.237689852714538574e-01,1.914031386375427246e+00,-1.906823962926864624e-01
2.174328714609146118e-01,8.700677156448364258e-01,4.956818819046020508e-01
1.504189074039459229e-01,3.649609982967376709e-01,2.403415679931640625e+00
-5.761879682540893555e-02,2.010990530252456665e-01,1.050654411315917969e+00
1.105525970458984375e+00,1.187030315399169922e+00,6.387302279472351074e-01
-1.143004894256591797e+00,1.633431553840637207e+00,-1.146345376968383789e+00
3.026354610919952393e-01,-7.542758584022521973e-01,-6.413834542036056519e-02
3.287624120712280273e-01,3.213572204113006592e-01,4.219207465648651123e-01
1.613711237907409668e+00,4.535343050956726074e-01,-2.441566288471221924e-01
9.640871882438659668e-01,1.189470529556274414e+00,-1.227607846260070801e+00
5.974000692367553711e-01,7.011727690696716309e-01,-2.975634932518005371e-01
1.375706791877746582e+00,-1.500555872917175293e-01,1.255764514207839966e-01
-1.730718314647674561e-01,1.557904761284589767e-02,-1.096275091171264648e+00
-1.440050840377807617e+00,1.594505071640014648e+00,-8.469613194465637207e-01
-9.913923740386962891e-01,-2.153390169143676758e+00,-6.389617323875427246e-01
-1.323089838027954102e+00,1.642015218734741211e+00,1.009817123413085938e+00
-6.881503462791442871e-01,2.252435922622680664e+00,9.817655086517333984e-01
-3.248313963413238525e-01,-2.499405622482299805e+00,2.290942668914794922e+00
-1.389572501182556152e+00,-1.645398736000061035e+00,1.022570490837097168e+00
2.439752340316772461e+00,1.384272813796997070e+00,5.639091134071350098e-01
5.947543382644653320e-01,8.534155488014221191e-01,7.589285969734191895e-01
2.811914384365081787e-01,1.042011007666587830e-01,-6.259312480688095093e-02
-7.539646029472351074e-01,-2.806750833988189697e-01,-1.692956805229187012e+00
-9.833962470293045044e-02,-9.885911345481872559e-01,-1.103589296340942383e+00
1.798941493034362793e-01,1.392002344131469727e+00,9.183166027069091797e-01
-1.570500612258911133e+00,-9.896281361579895020e-01,9.407711625099182129e-01
-9.824873805046081543e-01,-2.246331572532653809e-01,5.500521063804626465e-01
-9.683444499969482422e-01,1.053755059838294983e-01,-1.334025502204895020e+00
-6.013676524162292480e-01,3.197819292545318604e-01,-1.592993736267089844e+00
4.404747486114501953e-01,-1.963779889047145844e-02,5.524899363517761230e-01
2.239141315221786499e-01,1.364140391349792480e+00,1.252245008945465088e-01
-4.294055402278900146e-01,1.222975030541419983e-01,5.432980060577392578e-01
4.886006936430931091e-02,4.059169068932533264e-02,-7.019916772842407227e-01
-6.629009246826171875e-01,-1.402605295181274414e+00,1.749576687812805176e+00
-1.243863224983215332e+00,-6.929051876068115234e-01,-7.184072732925415039e-01
8.949244022369384766e-01,-2.949496805667877197e-01,1.247742056846618652e+00
-6.734906435012817383e-01,2.789941728115081787e-01,-8.353470563888549805e-01
2.145149230957031250e+00,-1.187598466873168945e+00,3.098207116127014160e-01
6.337769031524658203e-01,4.137991070747375488e-01,-1.852876543998718262e-01
-1.298207044601440430e-01,4.381147027015686035e-02,-1.470019966363906860e-01
9.638791084289550781e-01,2.210522890090942383e+00,-5.574917793273925781e-01
-1.369802951812744141e+00,-8.828204870223999023e-02,2.579709291458129883e+00
-8.036745786666870117e-01,1.639116764068603516e+00,1.677700757980346680e+00
-5.535882711410522461e-01,5.689830780029296875e-01,1.628396630287170410e+00
-3.791277408599853516e-01,-2.035803645849227905e-01,-5.816808938980102539e-01
-1.014756679534912109e+00,-6.492775678634643555e-01,-1.223940253257751465e+00
3.408346697688102722e-02,-7.699732184410095215e-01,2.337859123945236206e-01
-1.555895686149597168e+00,3.308802247047424316e-01,8.335289359092712402e-01
-1.993735671043395996e+00,3.740565776824951172e-01,1.227669000625610352e+00
-1.209640979766845703e+00,1.672572374343872070e+00,4.190190136432647705e-01
-7.050118446350097656e-01,-5.576907843351364136e-02,5.583269000053405762e-01
7.600539177656173706e-02,5.387560129165649414e-01,-9.206736087799072266e-01
1.693608313798904419e-01,-1.413714528083801270e+00,-1.112260594964027405e-01
-9.039076566696166992e-01,-7.355299592018127441e-01,1.236093163490295410e+00
1.091310143470764160e+00,6.091381311416625977e-01,-1.092312812805175781e+00
-3.164084553718566895e-01,1.213097691535949707e+00,1.417169123888015747e-01
2.319329500198364258e+00,3.933178484439849854e-01,1.920491158962249756e-01
-3.091164529323577881e-01,1.335408985614776611e-01,-1.524698436260223389e-01
7.081086635589599609e-01,9.567022919654846191e-01,-7.859894633293151855e-01
-1.331232905387878418e+00,-1.836205363273620605e+00,5.079913139343261719e-01
-1.103366613388061523e+00,-2.152890682220458984e+00,3.885785937309265137e-01
2.492999553680419922e+00,-6.070911418646574020e-03,8.384907841682434082e-01
8.182936161756515503e-02,-9.888965636491775513e-02,9.190765023231506348e-01
-2.902745306491851807e-01,2.673923075199127197e-01,3.216978013515472412e-01
-6.680904626846313477e-01,9.920423626899719238e-01,-1.749597638845443726e-01
-7.557451725006103516e-01,5.365098714828491211e-01,-8.984679579734802246e-01
2.818115800619125366e-02,-9.118996560573577881e-03,1.085895538330078125e+00
4.746982455253601074e-01,-2.502695843577384949e-02,8.177663087844848633e-01
1.390207529067993164e+00,5.578103065490722656e-01,1.035261992365121841e-02
-1.311836242675781250e+00,-1.065113663673400879e+00,-3.052247166633605957e-01
-6.095122098922729492e-01,-1.869713068008422852e-01,5.664992332458496094e-02
5.296927690505981445e-01,-7.049877941608428955e-02,4.865016341209411621e-01
6.447441130876541138e-02,-1.975466609001159668e+00,-9.393354058265686035e-01
-1.440875530242919922e-01,-1.209694743156433105e+00,5.999287366867065430e-01
1.530750870704650879e+00,1.218761801719665527e+00,-2.134428769350051880e-01
1.490726113319396973e+00,1.486674547195434570e-01,-3.370859622955322266e-01
-6.134026646614074707e-01,-3.024697005748748779e-01,-3.881768286228179932e-01
1.704162210226058960e-01,1.605739742517471313e-01,3.046020166948437691e-03
4.369381666183471680e-01,1.190646290779113770e+00,9.495541453361511230e-01
-1.484897971153259277e+00,-2.553921222686767578e+00,9.343199133872985840e-01
-1.366878747940063477e+00,-2.247654050588607788e-01,-1.170112967491149902e+00
-1.801980495452880859e+00,5.414627194404602051e-01,7.591551542282104492e-01
-5.765104293823242188e-01,-2.591042280197143555e+00,-5.462444424629211426e-01
3.918040096759796143e-01,-1.478911519050598145e+00,1.833599209785461426e-01
-1.530984882265329361e-02,5.792915225028991699e-01,1.195803657174110413e-01
-9.730689525604248047e-01,1.196571469306945801e+00,-1.585295796394348145e-01
-2.730453945696353912e-02,-9.332679510116577148e-01,-4.432822465896606445e-01
-8.848026990890502930e-01,-1.729460656642913818e-01,1.711708426475524902e+00
-1.371901154518127441e+00,-1.613561391830444336e+00,1.471170306205749512e+00
-2.093236744403839111e-01,-6.690727472305297852e-01,1.039904713630676270e+00
-6.056155562400817871e-01,1.826009750366210938e+00,6.779258847236633301e-01
-4.879114031791687012e-01,2.157308101654052734e+00,-6.057149171829223633e-01
7.420953512191772461e-01,2.992925941944122314e-01,1.301741242408752441e+00
1.561511158943176270e+00,3.200414776802062988e-02,-7.534178495407104492e-01
4.599721431732177734e-01,-6.777153611183166504e-01,2.013387203216552734e+00
1.365353316068649292e-01,-3.653215467929840088e-01,1.846803128719329834e-01
-1.347126245498657227e+00,-9.716140627861022949e-01,1.200413942337036133e+00
-6.568942666053771973e-01,-1.046911001205444336e+00,5.366527438163757324e-01
1.185704112052917480e+00,7.189533114433288574e-01,9.960476756095886230e-01
-7.567951083183288574e-01,-1.421810626983642578e+00,1.501333594322204590e+00
-3.226798474788665771e-01,-2.508330047130584717e-01,1.328194141387939453e+00
5.562300086021423340e-01,4.558877646923065186e-01,2.165002346038818359e+00
-6.435182094573974609e-01,9.278401136398315430e-01,5.701312422752380371e-02
2.685922682285308838e-01,1.528468370437622070e+00,5.078357458114624023e-01
5.382961034774780273e-01,1.072507381439208984e+00,-3.649527430534362793e-01
-8.392096757888793945e-01,-1.044809222221374512e+00,-1.966356635093688965e+00
2.056207180023193359e+00,-1.103208422660827637e+00,-2.212536185979843140e-01
-2.768132984638214111e-01,3.074066936969757080e-01,8.157371878623962402e-01
8.604735136032104492e-01,-5.830774307250976562e-01,-1.671217083930969238e-01
2.825799584388732910e-01,-2.486911267042160034e-01,1.607345581054687500e+00
4.909749627113342285e-01,7.348777651786804199e-01,6.628812551498413086e-01
1.173473834991455078e+00,1.810215562582015991e-01,-1.296831965446472168e+00
3.996879458427429199e-01,-6.513568758964538574e-01,-5.286166667938232422e-01
5.863640308380126953e-01,1.238283038139343262e+00,2.127157710492610931e-02
3.088330030441284180e-01,1.702214956283569336e+00,2.407531738281250000e-01
2.601683139801025391e+00,5.655096173286437988e-01,-1.760762810707092285e+00
7.533416152000427246e-01,3.811583817005157471e-01,1.289752721786499023e+00
6.731813549995422363e-01,-1.384559869766235352e-01,-1.224298238754272461e+00
-2.090232521295547485e-01,-8.505204319953918457e-01,-5.805234313011169434e-01
5.885784029960632324e-01,1.669904470443725586e+00,3.946715295314788818e-01
-1.195883035659790039e+00,4.446026682853698730e-01,1.196631431579589844e+00
-6.097828745841979980e-01,-1.340171694755554199e-01,1.468819472938776016e-02
-7.848983407020568848e-01,6.482804417610168457e-01,-1.209481507539749146e-01
4.195324480533599854e-01,-8.874921798706054688e-01,-4.374583065509796143e-01
7.223813533782958984e-01,-3.728331625461578369e-01,1.726963877677917480e+00
-3.996361792087554932e-01,2.246847301721572876e-01,9.325908422470092773e-01
-1.418365716934204102e+00,-1.760808825492858887e+00,-1.525656342506408691e+00
1.262584090232849121e+00,-5.518581271171569824e-01,2.558199167251586914e+00
-5.642476081848144531e-01,1.845512986183166504e-01,1.542109966278076172e+00
2.006092786788940430e+00,2.061503648757934570e+00,1.208366274833679199e+00
1.024062514305114746e+00,5.925269722938537598e-01,7.783610820770263672e-01
-5.511857271194458008e-01,-8.181988596916198730e-01,-3.374457359313964844e-03
-1.701846271753311157e-01,-4.532280564308166504e-01,6.963874697685241699e-01
9.553052186965942383e-01,8.840688318014144897e-02,1.477530121803283691e+00
-1.141689062118530273e+00,-1.936594545841217041e-01,-7.168223261833190918e-01
-1.866536617279052734e+00,-8.268068730831146240e-02,-1.217475086450576782e-01
1.513449788093566895e+00,6.308116912841796875e-01,-1.024186849594116211e+00
1.854092597961425781e+00,1.221033692359924316e+00,5.820977091789245605e-01
-2.264841049909591675e-01,-9.594392180442810059e-01,-3.722067773342132568e-01
1.088748574256896973e+00,1.884586334228515625e+00,1.543243527412414551e+00
-4.888494312763214111e-01,-1.119617462158203125e+00,1.408862471580505371e-01
-1.768439412117004395e+00,3.231677114963531494e-01,-1.476025879383087158e-01
-4.660364985466003418e-01,-1.594703078269958496e+00,5.136001110076904297e-01
-5.327008366584777832e-01,-1.169916868209838867e+00,-2.872262239456176758e+00
-2.751490473747253418e-02,1.772251605987548828e+00,1.661259174346923828e+00
-4.570962488651275635e-01,-6.022120714187622070e-01,4.687742590904235840e-01
-9.983854293823242188e-01,3.017919063568115234e-01,7.660802602767944336e-01
1.226933240890502930e+00,-1.001540794968605042e-01,-2.036737501621246338e-01
-8.779826164245605469e-01,-8.268803358078002930e-01,-2.264788895845413208e-01
3.673655092716217041e-01,9.135846495628356934e-01,-8.031789660453796387e-01
1.492688536643981934e+00,-2.711235880851745605e-01,-2.136729471385478973e-02
-7.472116947174072266e-01,-2.424240350723266602e+00,8.840454220771789551e-01
7.368438839912414551e-01,-2.813275456428527832e-01,6.699071824550628662e-02
5.159392356872558594e-01,-1.562545895576477051e+00,-5.290526747703552246e-01
7.942646741867065430e-01,-1.254289388656616211e+00,2.935579419136047363e-01
-1.356581807136535645e+00,4.664299786090850830e-01,-3.564148396253585815e-02
-1.615131855010986328e+00,1.164739370346069336e+00,-7.345916032791137695e-01
-8.102524280548095703e-01,2.005691975355148315e-01,1.148637294769287109e+00
-1.015821814537048340e+00,6.167985126376152039e-02,4.288164973258972168e-01
6.931055784225463867e-01,1.764415502548217773e-01,-3.670278489589691162e-01
-8.275902271270751953e-01,8.614388108253479004e-02,-1.072139024734497070e+00
-2.921350479125976562e+00,4.365597963333129883e-01,9.039348363876342773e-01
-2.362932443618774414e+00,-1.009730696678161621e+00,6.191542744636535645e-01
2.057495355606079102e+00,2.079370804131031036e-02,-7.280029654502868652e-01
-1.828964352607727051e-01,1.374876379966735840e+00,-6.459642052650451660e-01
-7.991920113563537598e-01,-4.827435314655303955e-01,-9.533286094665527344e-01
1.226703152060508728e-01,1.624678492546081543e+00,3.230792880058288574e-01
-2.523534893989562988e-01,-2.918112576007843018e-01,-1.563190817832946777e+00
8.831097483634948730e-01,-7.783719897270202637e-02,-1.804799139499664307e-01
3.193107604980468750e+00,2.987529039382934570e-01,-7.517910599708557129e-01
-4.263575971126556396e-01,1.148445725440979004e+00,1.132704094052314758e-01
-1.438277959823608398e+00,9.192289113998413086e-01,-6.681441068649291992e-01
1.873297810554504395e+00,1.080048084259033203e+00,-4.473218917846679688e-01
1.281016349792480469e+00,6.785550713539123535e-02,8.527736663818359375e-01
4.847328066825866699e-01,-8.463566303253173828e-01,-6.435498595237731934e-01
1.029960870742797852e+00,-3.347753286361694336e-01,-4.036484658718109131e-01
-9.551225900650024414e-01,4.235990643501281738e-01,2.062525033950805664e+00
-1.067532896995544434e+00,2.421945706009864807e-02,1.412220597267150879e+00
-7.964139431715011597e-02,4.523718059062957764e-01,-1.062393546104431152e+00
4.283070862293243408e-01,-1.871442645788192749e-01,9.857299923896789551e-01
1.187386035919189453e+00,2.589563608169555664e+00,5.796331763267517090e-01
3.257963061332702637e-01,1.943843066692352295e-01,-3.531662821769714355e-01
3.384838402271270752e-01,-2.954014241695404053e-01,1.684609800577163696e-01
1.317597508430480957e+00,-1.006542563438415527e+00,1.139878511428833008e+00
1.317115068435668945e+00,-1.180685237050056458e-01,-2.121854782104492188e+00
-6.078220009803771973e-01,1.296994566917419434e+00,-2.286806143820285797e-02
-9.993022084236145020e-01,-5.047749280929565430e-01,8.406200408935546875e-01
5.467335581779479980e-01,-2.389321029186248779e-01,-3.668244183063507080e-01
-3.917581439018249512e-01,-9.224101901054382324e-01,1.615375638008117676e+00
-3.223204612731933594e-01,1.217158555984497070e+00,1.521316051483154297e+00
9.983109235763549805e-01,-4.316202998161315918e-01,4.037300944328308105e-01
-2.419560588896274567e-02,-9.037018418312072754e-01,3.243592679500579834e-01
-1.179039835929870605e+00,1.187679409980773926e+00,-4.646173119544982910e-01
2.011596560478210449e-01,2.832878828048706055e-01,-2.589049637317657471e-01
5.866938233375549316e-01,-4.749036431312561035e-01,8.712972998619079590e-01
-1.345979690551757812e+00,1.263795793056488037e-01,1.938928961753845215e+00
-1.000331282615661621e+00,-6.777449846267700195e-01,5.139078497886657715e-01
1.795817762613296509e-01,3.506301045417785645e-01,4.891871213912963867e-01
6.347214579582214355e-01,1.109699845314025879e+00,4.098186492919921875e-01
-2.412576526403427124e-01,6.725736856460571289e-01,1.899881958961486816e+00
-1.326337456703186035e-01,-9.745293259620666504e-01,1.107080698013305664e+00
-1.203811615705490112e-01,-2.172669649124145508e+00,8.474217057228088379e-01
-5.353282094001770020e-01,-9.053327888250350952e-02,3.319803178310394287e-01
1.904996782541275024e-01,7.094517946243286133e-01,-4.354863762855529785e-01
5.131058096885681152e-01,-2.595466673374176025e-01,7.388104796409606934e-01
6.153674721717834473e-01,-9.354386925697326660e-01,1.085982084274291992e+00
-5.359634160995483398e-01,8.080577850341796875e-01,3.672873079776763916e-01
1.838183641433715820e+00,-2.234659790992736816e-01,-3.493168056011199951e-01
-1.941960677504539490e-02,-3.031797707080841064e-01,7.999418973922729492e-01
-1.616310596466064453e+00,-1.053682446479797363e+00,-1.067802906036376953e+00
9.503076076507568359e-01,1.710613369941711426e+00,-1.044492200016975403e-01
-1.688217222690582275e-01,7.005216181278228760e-02,1.161878347396850586e+00
-9.273531436920166016e-01,2.383689880371093750e-01,9.751976132392883301e-01
5.010941624641418457e-01,1.895816177129745483e-01,1.001046061515808105e+00
-2.703232288360595703e+00,6.778753399848937988e-01,-6.540756821632385254e-01
-1.830632925033569336e+00,5.112025737762451172e-01,1.373658537864685059e+00
-1.374485194683074951e-01,9.528745412826538086e-01,1.612278223037719727e+00
1.314914464950561523e+00,1.639964580535888672e+00,7.421274781227111816e-01
7.543364167213439941e-02,-1.601965785026550293e+00,-2.460624873638153076e-01
-8.432465791702270508e-01,2.170942783355712891e+00,-1.758858114480972290e-01
1.232048049569129944e-01,5.514853596687316895e-01,4.360244795680046082e-02
1.695051074028015137e+00,-6.226493716239929199e-01,1.946074515581130981e-01
-7.424705624580383301e-01,-1.320022463798522949e+00,-6.117690801620483398e-01
-3.703679889440536499e-02,-4.293022155761718750e-01,-6.924209594726562500e-01
-1.406317472457885742e+00,-8.310557156801223755e-02,-1.504720330238342285e+00
7.600559592247009277e-01,8.243975043296813965e-02,-1.457551479339599609e+00
-3.092090785503387451e-01,-7.521563768386840820e-01,3.191744983196258545e-01
1.340450406074523926e+00,-1.875172495841979980e+00,1.150260791182518005e-01
-1.601327955722808838e-01,6.713400483131408691e-01,2.131966352462768555e-01
-7.519693374633789062e-01,-3.190539479255676270e-01,-7.960258722305297852e-01
1.076007127761840820e+00,2.131164819002151489e-02,1.901190638542175293e+00
-6.066081300377845764e-02,-7.084067463874816895e-01,-1.513714432716369629e+00
-1.803139686584472656e+00,-1.584135890007019043e+00,2.671266496181488037e-01
5.087250471115112305e-01,-1.581190705299377441e+00,8.950383067131042480e-01
-4.830610454082489014e-01,1.467930078506469727e-01,1.612220644950866699e+00
8.968393206596374512e-01,-2.685306370258331299e-01,-8.911921977996826172e-01
-2.151815414428710938e+00,-7.191533446311950684e-01,-2.111302316188812256e-01
-9.871795177459716797e-01,-1.312569677829742432e-01,7.685188204050064087e-02
-2.248559892177581787e-01,-6.500025987625122070e-01,1.686546653509140015e-01
4.419406354427337646e-01,-1.090399026870727539e+00,1.410932421684265137e+00
-9.858813136816024780e-02,1.884962245821952820e-02,7.082144021987915039e-01
2.332161366939544678e-01,9.531366229057312012e-01,2.871241569519042969e-01
-6.124373674392700195e-01,3.615035116672515869e-01,-1.143726229667663574e+00
1.085597053170204163e-01,-3.322999179363250732e-02,-2.081168591976165771e-01
-1.285375058650970459e-01,-1.881849050521850586e+00,-5.487248897552490234e-01
9.284490346908569336e-02,1.598563939332962036e-01,-1.027675151824951172e+00
1.265707850456237793e+00,-8.661748766899108887e-01,9.694572091102600098e-01
4.271943569183349609e-01,-6.462273001670837402e-01,1.775310873985290527e+00
-1.193636775016784668e+00,9.191541671752929688e-01,1.000582337379455566e+00
-6.706202030181884766e-01,1.392465353012084961e+00,-2.500465214252471924e-01
2.886936366558074951e-01,2.603218257427215576e-01,-1.343087404966354370e-01
8.108083009719848633e-01,7.934887409210205078e-01,-1.748531937599182129e+00
1.304340243339538574e+00,-1.662492036819458008e+00,1.032546162605285645e+00
1.126705169677734375e+00,-1.090966463088989258e+00,-4.108142852783203125e-01
-1.105704665184020996e+00,-2.149210274219512939e-01,-3.080342710018157959e-01
7.796605229377746582e-01,1.310308694839477539e+00,1.395683765411376953e+00
-5.621680021286010742e-01,-2.092218697071075439e-01,-1.683438181877136230e+00
-8.058700561523437500e-01,9.648516178131103516e-01,1.615582823753356934e+00
-1.234348893165588379e+00,-5.924642682075500488e-01,-2.640575729310512543e-02
2.801611721515655518e-01,-8.096035122871398926e-01,4.240610301494598389e-01
-4.738393425941467285e-01,-1.445227116346359253e-02,5.462842583656311035e-01
6.422269623726606369e-03,-4.363858997821807861e-01,-1.096098050475120544e-01
-8.836296200752258301e-02,-3.700110316276550293e-01,-2.587960660457611084e-01
1.598647117614746094e+00,5.609194636344909668e-01,-2.954803109169006348e-01
6.969544291496276855e-01,-3.338194787502288818e-01,1.173124670982360840e+00
3.696421980857849121e-01,-1.073021441698074341e-01,4.477169215679168701e-01
-1.570876121520996094e+00,-1.126767516136169434e+00,-1.193925023078918457e+00
1.429430991411209106e-01,1.732514977455139160e+00,2.231300115585327148e+00
6.380510926246643066e-01,5.008444786071777344e-01,-1.801057696342468262e+00
-5.426738262176513672e-01,-7.877837419509887695e-01,-6.208475828170776367e-01
-1.681438237428665161e-01,-4.720905721187591553e-01,-1.979299783706665039e+00
7.479102611541748047e-01,-1.072743058204650879e+00,2.392468601465225220e-01
2.074082612991333008e+00,-9.193845987319946289e-01,-2.530287504196166992e+00
-2.860042154788970947e-01,1.100959658622741699e+00,1.958347439765930176e+00
-1.229549646377563477e+00,4.966992139816284180e-01,-4.653104543685913086e-01
-1.059483513236045837e-01,2.644343376159667969e+00,-1.502970337867736816e+00
2.537396550178527832e-01,4.676931798458099365e-01,1.085786342620849609e+00
9.798315167427062988e-02,3.080505430698394775e-01,-3.916485607624053955e-01
2.691269516944885254e-01,-3.431922793388366699e-01,6.215718984603881836e-01
-3.696103394031524658e-01,3.771004080772399902e-01,-2.926281280815601349e-02
1.126050233840942383e+00,-5.139372497797012329e-02,-1.773032426834106445e+00
1.261921525001525879e+00,-9.057322740554809570e-01,-6.537663340568542480e-01
-5.956612825393676758e-01,1.374438047409057617e+00,-2.135674238204956055e+00
3.137748479843139648e+00,1.056056857109069824e+00,2.232389152050018311e-01
-5.489400029182434082e-02,2.855540812015533447e-01,5.211224555969238281e-01
6.452155709266662598e-01,5.556044578552246094e-01,8.958068490028381348e-02
-1.973384171724319458e-01,-1.512732803821563721e-01,-1.949082762002944946e-01
1.133770108222961426e+00,5.935567021369934082e-01,-2.940388679504394531e+00
6.559007763862609863e-01,1.947361975908279419e-01,-1.870875619351863861e-02
-3.885184526443481445e-01,1.124112725257873535e+00,9.475264549255371094e-01
-7.728776931762695312e-01,4.070522785186767578e-01,-9.716567397117614746e-01
-1.379618167877197266e+00,-6.267172098159790039e-01,8.623934984207153320e-01
9.531250596046447754e-01,5.130854249000549316e-01,7.250958085060119629e-01
5.161783099174499512e-01,-6.414815783500671387e-01,4.319225549697875977e-01
8.004094958305358887e-01,7.542913556098937988e-01,1.188913345336914062e+00
7.083038687705993652e-01,3.514482080936431885e-01,1.070150256156921387e+00
-2.652125991880893707e-02,-8.818746805191040039e-01,-1.630669683218002319e-01
-7.449026703834533691e-01,-6.751782894134521484e-01,-1.445186734199523926e-01
-7.924199104309082031e-01,-3.079615235328674316e-01,-1.893614649772644043e+00
2.132937014102935791e-01,1.205475418828427792e-03,-8.170886039733886719e-01
6.592456698417663574e-01,9.375701546669006348e-01,-1.607559919357299805e+00
-7.627247571945190430e-01,-7.691423296928405762e-01,-9.399030804634094238e-01
8.294748663902282715e-01,-1.938261389732360840e-01,-2.645148336887359619e-01
-2.003862380981445312e+00,6.354180574417114258e-01,-1.239258408546447754e+00
5.993263050913810730e-02,2.773769497871398926e-01,1.360658645629882812e+00
-1.308820366859436035e+00,-3.019512176513671875e+00,1.838495433330535889e-01
1.800511240959167480e+00,1.238946318626403809e+00,2.096594125032424927e-01
-4.916361868381500244e-01,8.071225881576538086e-01,-9.735462069511413574e-01
4.763577580451965332e-01,5.054701566696166992e-01,1.060209870338439941e+00
2.759660005569458008e+00,3.924159705638885498e-01,-5.089636445045471191e-01
-2.557431161403656006e-02,-1.769075870513916016e+00,-6.947131156921386719e-01
-4.092824459075927734e-01,-5.240883827209472656e-01,1.523548662662506104e-01
-8.224199414253234863e-01,1.121030688285827637e+00,2.070649206871166825e-04
-9.300321340560913086e-03,-3.278947174549102783e-01,1.551906764507293701e-01
8.250982761383056641e-01,-8.671302199363708496e-01,-6.581164598464965820e-01
-3.037260174751281738e-01,-1.345870971679687500e+00,-8.192578554153442383e-01
-4.762208759784698486e-01,8.743891716003417969e-01,2.625613212585449219e-01
1.935899108648300171e-01,8.508979678153991699e-01,-1.373717933893203735e-01
3.904648423194885254e-01,-1.032217517495155334e-01,2.653623521327972412e-01
-5.827586650848388672e-01,-2.438817262649536133e+00,-1.342791616916656494e-01
1.422748088836669922e+00,9.262154102325439453e-01,9.653974771499633789e-01
1.236130714416503906e+00,8.865758776664733887e-02,1.973157078027725220e-01
-6.176518797874450684e-01,-3.160728514194488525e-01,6.157711744308471680e-01
1.203884482383728027e+00,-1.394462734460830688e-01,-4.501892626285552979e-01
5.279588513076305389e-04,6.012067198753356934e-01,-1.443854808807373047e+00
-2.296180963516235352e+00,-5.505368709564208984e-01,-1.220712423324584961e+00
-5.081402063369750977e-01,-1.477803140878677368e-01,-4.532484114170074463e-01
1.452467560768127441e+00,3.267447650432586670e-01,3.004743456840515137e-01
6.222071647644042969e-01,-1.138833165168762207e+00,1.039111733436584473e+00
-7.576428353786468506e-02,6.704806089401245117e-01,-1.071857213973999023e+00
-1.553758740425109863e+00,8.178896307945251465e-01,3.764095306396484375e-01
-9.020515680313110352e-01,-8.696630597114562988e-01,1.125434756278991699e+00
-1.189411878585815430e+00,1.642672896385192871e+00,-9.006207585334777832e-01
6.383919119834899902e-01,-3.286184668540954590e-01,6.031874418258666992e-01
-5.441139936447143555e-01,-1.627929061651229858e-01,4.091917723417282104e-02
-1.002187490463256836e+00,7.408243417739868164e-01,-5.132135748863220215e-01
-2.285999208688735962e-01,-9.943493604660034180e-01,-2.562333583831787109e+00
-1.910277605056762695e-01,2.412615537643432617e+00,7.846043109893798828e-01
-1.926038041710853577e-02,-2.628908157348632812e-01,2.246589213609695435e-02
5.471191406250000000e-01,-1.180812835693359375e+00,1.114321708679199219e+00
7.153813242912292480e-01,7.181857228279113770e-01,4.384757280349731445e-01
1.961665786802768707e-02,6.728612184524536133e-01,5.918141603469848633e-01
-3.540407121181488037e-01,-5.736017823219299316e-01,1.018562987446784973e-01
1.549020171165466309e+00,-1.239107131958007812e+00,-1.467525243759155273e+00
1.647608429193496704e-01,5.088770017027854919e-02,1.733416616916656494e-01
2.439531981945037842e-01,-2.232022583484649658e-01,1.489863395690917969e+00
-1.600903987884521484e+00,-8.284970521926879883e-01,-1.032547578215599060e-01
-1.643188834190368652e+00,-1.758543998003005981e-01,1.661470174789428711e+00
2.088648825883865356e-02,2.307009100914001465e-01,-1.260164737701416016e+00
-6.163613796234130859e-01,-3.751963675022125244e-01,-3.177151083946228027e-01
1.281643748283386230e+00,5.576910376548767090e-01,-1.111457943916320801e+00
2.465047836303710938e-01,4.982217550277709961e-01,1.140148997306823730e+00
1.580540657043457031e+00,-1.015094161033630371e+00,-8.108575344085693359e-01
-1.257577896118164062e+00,-2.340198606252670288e-01,4.663583636283874512e-01
9.873344898223876953e-01,-7.595102488994598389e-02,-3.198475241661071777e-01
1.517579853534698486e-01,-8.351429104804992676e-01,2.089538812637329102e+00
-1.607661008834838867e+00,1.847405731678009033e-01,2.023606300354003906e+00
6.799844559282064438e-03,-1.900390386581420898e-01,-3.574454188346862793e-01
-1.803916841745376587e-01,1.372848510742187500e+00,-2.211861848831176758e+00
1.533433675765991211e+00,-1.423957109451293945e+00,-2.666523158550262451e-01
-4.292444288730621338e-01,5.885532498359680176e-01,-1.598124384880065918e+00
4.621726572513580322e-01,2.024309635162353516e+00,-1.363173961639404297e+00
1.897061616182327271e-01,-6.619821786880493164e-01,4.258871972560882568e-01
1.914777792990207672e-02,-6.414868831634521484e-01,4.878722727298736572e-01
1.804348111152648926e+00,-1.909037977457046509e-01,7.197579145431518555e-01
-1.293272972106933594e+00,-9.564363956451416016e-01,4.724062681198120117e-01
1.484116077423095703e+00,3.556133508682250977e-01,-3.130580186843872070e-01
-7.085945690050721169e-04,-1.250407695770263672e+00,6.045153141021728516e-01
8.823330402374267578e-01,-4.520903229713439941e-01,-4.700421392917633057e-01
2.658782303333282471e-01,-4.367197453975677490e-01,-6.613261252641677856e-02
2.099721670150756836e+00,-2.470256984233856201e-01,-3.583401441574096680e-01
-6.475418210029602051e-01,7.441919445991516113e-01,-1.812241673469543457e-01
-6.493730545043945312e-01,1.321304082870483398e+00,1.419602990150451660e+00
-6.004235744476318359e-01,-1.866539955139160156e+00,1.007513642311096191e+00
-6.846297979354858398e-01,7.906255722045898438e-01,-1.970103859901428223e+00
8.925973176956176758e-01,-1.211171984672546387e+00,7.307640910148620605e-01
1.427306793630123138e-02,-9.539394378662109375e-01,-4.070363044738769531e-01
6.863184571266174316e-01,1.058944538235664368e-01,5.844129920005798340e-01
1.976440548896789551e+00,-1.564241647720336914e+00,1.617212533950805664e+00
1.043559387326240540e-01,-8.987840414047241211e-01,-1.330313682556152344e+00
-1.891203969717025757e-01,9.216501116752624512e-01,-1.275491267442703247e-01
1.511154890060424805e+00,-1.451175689697265625e+00,-1.208894792944192886e-02
-1.252393484115600586e+00,3.636318743228912354e-01,8.868873715400695801e-01
-4.207617938518524170e-01,-2.604213953018188477e+00,1.989481449127197266e-01
4.367385506629943848e-01,4.042947590351104736e-01,1.235782146453857422e+00
-1.071053624153137207e+00,6.802161335945129395e-01,1.192507505416870117e+00
-1.778587579727172852e+00,3.196518123149871826e-01,-5.041798353195190430e-01
-8.152267336845397949e-02,3.476764857769012451e-01,-4.872285723686218262e-01
-6.757080554962158203e-01,3.415241837501525879e-02,-1.087245941162109375e+00
-1.085825085639953613e+00,6.793732643127441406e-01,-1.148794054985046387e+00
6.663125157356262207e-01,4.625912904739379883e-01,-1.725806713104248047e+00
-6.775646805763244629e-01,1.194109439849853516e+00,-9.811655282974243164e-01
-4.644042551517486572e-01,4.620608985424041748e-01,7.833905220031738281e-01
-2.515388727188110352e-01,-5.975102186203002930e-01,1.422369837760925293e+00
1.738899707794189453e+00,9.788580536842346191e-01,8.531814068555831909e-02
-8.082657456398010254e-01,-8.304443955421447754e-01,5.225141048431396484e-01
4.183982312679290771e-01,1.401598572731018066e+00,6.504501104354858398e-01
-1.503080248832702637e+00,1.051947593688964844e+00,-9.980606436729431152e-01
-3.839712738990783691e-01,2.502002120018005371e-01,1.995667457580566406e+00
3.109918594360351562e+00,6.067230701446533203e-01,-1.831966191530227661e-01
5.345056653022766113e-01,8.876554369926452637e-01,-3.206676244735717773e-01
1.795211315155029297e+00,2.300707548856735229e-01,4.977430999279022217e-01
6.659242510795593262e-01,4.215866029262542725e-01,8.389405012130737305e-01
-6.172531843185424805e-01,-5.583017468452453613e-01,-1.100154280662536621e+00
4.395012259483337402e-01,7.789365053176879883e-01,4.577728807926177979e-01
1.674492478370666504e+00,-5.596018861979246140e-03,6.687416434288024902e-01
-1.091700911521911621e+00,-3.870997130870819092e-01,6.955377459526062012e-01
8.491021394729614258e-01,-2.939669489860534668e-01,-7.159925252199172974e-02
-1.517873764038085938e+00,-3.570291996002197266e-01,8.903831839561462402e-01
5.752050280570983887e-01,5.006657242774963379e-01,4.977368563413619995e-02
7.063158787786960602e-03,-6.603211164474487305e-01,6.988283991813659668e-01
4.209729433059692383e-01,4.920188486576080322e-01,-5.260348320007324219e-01
-2.153342962265014648e+00,1.097152709960937500e+00,-4.788374602794647217e-01
-8.627757430076599121e-01,6.934788823127746582e-01,-3.920126259326934814e-01
1.059936404228210449e+00,6.170059442520141602e-01,6.835693120956420898e-01
-1.365955710411071777e+00,1.211943984031677246e+00,2.612505257129669189e-01
-3.692771494388580322e-01,1.433884650468826294e-01,-1.776235222816467285e+00
4.086528122425079346e-01,-1.029371500015258789e+00,-1.352670311927795410e+00
-1.522359132766723633e+00,1.112688422203063965e+00,-6.292634010314941406e-01
1.533727765083312988e+00,-5.358014702796936035e-01,-1.707358002662658691e+00
-1.116524457931518555e+00,1.235811591148376465e+00,-1.558981835842132568e-01
-5.482872724533081055e-01,1.600182205438613892e-01,5.017827153205871582e-01
1.117398858070373535e+00,1.448499202728271484e+00,-3.597686588764190674e-01
-1.326047658920288086e+00,-4.134651720523834229e-01,2.602805197238922119e-01
-9.637589454650878906e-01,-9.571509361267089844e-01,3.437878787517547607e-01
-4.865235090255737305e-02,3.279699385166168213e-02,-7.584953308105468750e-01
-2.304007112979888916e-01,-9.242331385612487793e-01,8.901984095573425293e-01
1.035249352455139160e+00,-1.846187829971313477e+00,-9.295108318328857422e-01
-1.496529221534729004e+00,-6.500239372253417969e-01,-8.343797177076339722e-02
-1.449645161628723145e+00,-9.218598008155822754e-01,-1.003957390785217285e+00
2.072673290967941284e-01,6.934433430433273315e-02,-7.217375636100769043e-01
1.768208742141723633e-01,-5.466800928115844727e-01,-2.716551125049591064e-01
1.673452138900756836e+00,1.340461015701293945e+00,-1.299581289291381836e+00
8.297324180603027344e-01,8.113965392112731934e-01,-1.148263335227966309e+00
8.187776207923889160e-01,1.537931919097900391e+00,-1.122544765472412109e+00
-9.175028204917907715e-01,1.017661452293395996e+00,2.714953124523162842e-01
5.514762997627258301e-01,3.405892252922058105e-01,3.906959295272827148e-01
-1.326472163200378418e+00,1.047317743301391602e+00,1.169589996337890625e+00
-2.293907403945922852e-01,-4.347695037722587585e-02,-1.531107544898986816e+00
5.142547488212585449e-01,5.720574259757995605e-01,-6.219101697206497192e-02
1.124353408813476562e+00,-3.340772390365600586e-01,5.646059513092041016e-01
-1.019664287567138672e+00,-2.355215139687061310e-02,-1.743542551994323730e-01
2.253079265356063843e-01,-3.695269227027893066e-01,-1.314726024866104126e-01
8.260471820831298828e-01,-4.367642402648925781e-01,-1.606577157974243164e+00
1.749583959579467773e+00,1.381454110145568848e+00,-1.292262673377990723e+00
6.897078156471252441e-01,-5.029747486114501953e-01,2.634872198104858398e-01
2.942241430282592773e-01,-2.344077974557876587e-01,-7.837656736373901367e-01
-6.905410289764404297e-01,-9.161919355392456055e-01,-8.318222165107727051e-01
-6.717828661203384399e-02,-7.157599925994873047e-01,6.820520758628845215e-01
1.487246155738830566e+00,-5.800532698631286621e-01,2.394044995307922363e-01
4.996851086616516113e-01,4.720022678375244141e-01,7.595526427030563354e-02
7.426823973655700684e-01,4.822489619255065918e-01,-1.237662434577941895e+00
8.691560626029968262e-01,8.872908353805541992e-01,-7.632861137390136719e-01
3.793783485889434814e-02,6.833289861679077148e-01,-2.093138247728347778e-01
1.072978019714355469e+00,2.363872528076171875e+00,-7.859860062599182129e-01
-1.381044626235961914e+00,3.038185834884643555e-01,7.215625047683715820e-01
-2.308663725852966309e-01,1.453260660171508789e+00,-1.338605761528015137e+00
6.929185986518859863e-01,-6.058608293533325195e-01,1.719377875328063965e+00
1.992515325546264648e+00,-7.666565775871276855e-01,-5.495571494102478027e-01
8.595879077911376953e-01,-3.871306478977203369e-01,-4.541121795773506165e-02
2.538841962814331055e-02,-1.919673204421997070e+00,-1.383774634450674057e-02
-6.897277832031250000e-01,-4.931228160858154297e-01,1.443632006645202637e+00
-1.256506919860839844e+00,8.132051825523376465e-01,-2.789629399776458740e-01
-2.797601819038391113e-01,7.903718948364257812e-01,3.400512933731079102e-01
5.706130266189575195e-01,9.681846499443054199e-01,-3.313083946704864502e-01
-6.122367382049560547e-01,-1.085150480270385742e+00,-8.254105448722839355e-01
2.949094533920288086e+00,1.244679570198059082e+00,-1.351074337959289551e+00
-1.322457909584045410e+00,4.818660616874694824e-01,5.472648143768310547e-01
5.488838553428649902e-01,-2.549557983875274658e-01,-1.254542618989944458e-01
3.278795182704925537e-01,8.589300513267517090e-02,-2.219300270080566406e+00
-2.297996282577514648e-01,-8.514064550399780273e-01,1.752114146947860718e-01
2.985259056091308594e+00,3.674816787242889404e-01,-3.135297000408172607e-01
9.218015074729919434e-01,4.826878905296325684e-01,4.200944900512695312e-01
6.068505644798278809e-01,2.056543588638305664e+00,-1.130888462066650391e+00
4.736320674419403076e-01,-9.263811111450195312e-01,5.555126667022705078e-01
-9.186865091323852539e-01,-4.173668026924133301e-01,-2.950899004936218262e-01
9.758167266845703125e-01,9.184544682502746582e-01,-1.245717406272888184e+00
5.493411049246788025e-02,-7.095798254013061523e-01,-1.258504867553710938e+00
-2.170170545578002930e-01,-3.084827959537506104e-01,2.426716566085815430e+00
4.329598248004913330e-01,-1.377617478370666504e+00,-5.647739768028259277e-01
1.021383285522460938e+00,2.088442802429199219e+00,-1.585983276367187500e+00
-1.879924416542053223e+00,1.870965123176574707e+00,3.896141648292541504e-01
-8.682927489280700684e-01,5.346291065216064453e-01,-2.635747671127319336e+00
3.375506494194269180e-03,3.278211653232574463e-01,9.242701530456542969e-01
