0.3577873707,0.5607845187,1.0830512047,1.0538020134,-1.3776693344,-0.9378250241,0.5150352716,0.5137859583,0.5150476694,3.8527314663,0.5708904862,1.1355656385,0.9540017843,0.6513912678,-0.3152692318,0.7589692473,-0.7728252411,-0.2368186116,-0.4853635430,0.0818741396,2.3146586418,-1.8672652245,0.6862601638,-1.6127158403,-0.4719318748,1.0889506340,0.0642800182,-1.0777447224,-0.7153037190,0.6795977354,-0.7303666472,0.2164585888,0.0455718413,-0.6516003609,2.1439440250,0.6339190006,-2.0251426697,0.1864543110,-0.6617864370,0.8524333239,-0.7925207615,-0.1147364378,0.5049872994,0.8657552004,-1.2002964020,-0.3345012367,-0.4749453068,-0.6533292532,1.7654542923,0.4049817026,-1.2608839273,0.9178619385,2.1221561432,1.0324652195,-1.5193699598,-0.4842340648,1.2669111490,-0.7076694369,0.4438194335,0.7746340632,-0.9269304872,-0.0595253557,-3.2412674427,-1.0243875980
-0.2525681555,-1.2477831841,1.6324113607,-1.4301413298,-0.4400444925,0.1307405829,1.4412733316,-1.4358621836,1.1631637812,0.0102330614,-0.9815086722,0.4621034861,0.1990596950,-0.6002168655,0.0698020831,-0.3853136003,0.1135173440,0.6621306539,1.5860167742,-1.2378154993,2.1330332756,-1.9520877600,-0.1517850906,0.5883172154,0.2809918821,-0.6226994991,-0.2081222534,-0.4930009246,-0.5893647671,0.8496021032,0.3570154905,-0.6929095984,0.8995998502,0.3072995245,0.8128620982,0.6296288371,-0.8289949894,-0.5601810217,0.7472935915,0.6103702784,-0.0209015943,0.1173273847,1.2776648998,-0.5915713906,0.5470973849,-0.2021926492,-0.2176811993,1.0987768173,0.8254163265,0.8135096431,1.3054788113,0.0210038424,0.6819529533,-0.3102667630,0.3241663575,-0.1301430613,0.0969959646,0.5951570272,-0.8182206750,2.0923871994,-1.0060173273,-1.2141885757,1.1581108570,0.7916626930
